function [y1] = myANNFcn(x1)
%MYANNFCN neural network simulation function.
%
% Auto-generated by MATLAB, 26-Sep-2025 22:05:25.
% 
% [y1] = myANNFcn(x1) takes these arguments:
%   x = 9xQ matrix, input #1
% and returns:
%   y = 7xQ matrix, output #1
% where Q is the number of samples.

%#ok<*RPMT0>

% ===== NEURAL NETWORK CONSTANTS =====

% Input 1
x1_step1.keep = [1 2 4 5 6 7 8 9];
x1_step2.xoffset = [-0.167482576316243;-0.0629604719558613;-84.9299663153759;-0.0832967043976045;0;0;0;0];
x1_step2.gain = [0.270432850313571;0.502009684489948;0.0114331468880195;0.379447985253173;0.00993258213591856;0.00481365601050936;0.318313629295704;0.318313629295704];
x1_step2.ymin = -1;

% Layer 1
b1 = [1.798692347139665193;-3.3632421221195607508;2.5522465269118419506;2.2241351397884732144;2.7315275501685647441;1.8226905315407939678;1.9204202548182931487;1.1609731496690112174;-1.9821081845078751815;1.9576987171436448509;-2.9959422691166577302;2.4035110718348025038;-0.91269666209476751906;-1.1642572298989843915;-0.60528104797700710282;-0.79262009864750082588;-1.1745341871938610456;1.0644944506246409865;-0.92770720995692035338;-0.53299788937461689553;1.5753805746524596199;0.63782118703791701453;0.8319531637111600153;0.21000001236030560459;0.11184392567748267788;0.35399357842281736763;0.55323751309180946301;0.55857883173375499908;2.341991076901586144;-0.87806002817684447592;0.10869466766777584332;-0.98226339846577914727;0.93696871521147828688;-1.7121027160399899802;0.67670415292947527774;-0.029357795674578950756;0.45985968877389959975;-1.4405041085083258867;1.5367391842055273532;-0.09596203683389738226;-1.1999805150576086099;-2.6147954666520485389;1.8186241800256068846;3.2891282926828449007;2.5963920584348727516;2.291184635521000601;2.0318840921067575778;2.6839027097056162852;-2.1416805751940666269;1.4773984591304563097];
IW1_1 = [-0.54860326461801778297 0.648237798261935394 -3.1868004975278219071 -0.022195735501541465767 -0.12945117009754025794 0.085614453741734458658 -0.81643156959195062328 -1.6545849955541493959;0.36489492172480680887 -0.31851030837611121749 -0.0567403568908625075 -0.51560768614511409691 -0.10236764666384021161 0.049025753466985122486 2.7608038179417424551 2.22432444396840312;-0.85904775960496937426 -1.3600390809224729427 -1.8661138817175781934 0.18652480389421999263 -0.50032483237259250952 -0.17942636299380565479 0.9899989397345234643 2.1785401490517650736;0.1604876169220566251 -0.13593654869595492296 0.91662076256769631222 -0.40481653644822618299 0.75110498094767919053 0.0038837082507687018494 -1.1821060020244229527 1.4007908117266822945;-0.96987022788219157121 0.25727633491323687043 -1.9155038073127452769 1.0578590487778558593 0.030471038686450666044 -0.038402857027807213441 0.9990690575358872616 1.0307328024515944875;-0.33324992148478055354 1.2446189976549382195 0.89157785604347694619 1.1973463329748468276 -1.2091670848274713723 0.27605267962106799784 -0.72399173082297429982 -0.81355909700841855248;-0.77930407287060265986 -0.17013044022346868189 1.0644093823547033928 -1.2602943042793361972 0.99183152810959951395 -0.15612835340243116922 0.4789930360386789876 0.26329223756299824366;-0.773309078947973072 -0.80640779022357367278 -0.83838506993317163385 -1.7634663120224858268 -0.59579285728626696361 -1.2031584027406050375 0.23544232578391291466 -0.67753216673311211782;0.56231392143994995969 0.6302651464477228016 2.1072844930024783316 -1.0098820051477717108 -0.5854792598150978522 0.11261003524657473007 -0.66184502312672788271 -1.5674539641354165997;-0.37802223838066423278 0.55194283671540389502 1.7353451155054337995 -0.08838086144708523495 -0.010634103743403353418 0.033790902314892561076 -2.1342076480611380518 -1.8089230734499426312;0.65220867565834195201 2.3945061925970168026 5.9914389176473603627 0.77329914484698170085 -0.49548432823117211088 0.052081927142784568974 -0.38915771491239331548 0.59184700383453359152;-1.0240929269960352688 1.5596503883147347924 -1.8454649742017297243 -0.3214919064696826756 0.35204887690355785024 0.1059677707209113473 -0.51160015325536134512 -2.1918382624783872004;0.44844945256225254848 1.054131515401045105 -0.8278745500015768366 -1.2006229560364471975 0.53309164878622627981 -0.0016878902786323529174 2.0238758762219237752 2.9500534908061117889;1.0937760867879144921 1.3135175361439852537 -0.06252084914516396752 1.1073715166092796824 2.1639663335498688923 -0.0077547705518710326189 -1.4672419376792227297 -2.7174821832331041982;0.68255769477683159163 1.5099562819690968141 -0.35123570790334185387 -0.3647754488021439645 0.10317292603144150032 0.0060257015472737224943 1.6954925815824204438 1.2098203728333760676;0.58771871029887501336 1.1729293240539817589 1.2427110662023430621 -0.75995712629693368267 -1.0245940910003579205 0.17232005811856654365 -0.73559187930712754966 0.95511221675977597823;0.74327046383540418262 -0.80439343152304987328 -2.566697712611493376 1.1691241575118596074 -0.95749392040486591693 0.0023874162477901359099 -1.0238529612249196443 -0.86309676818050251601;-0.35667196662736816437 0.66754905634762751188 -0.25385499848153497693 -0.46016286917905563358 1.5267257700738401383 0.22534521656442949022 1.6429326719438843707 -0.98251167973874065087;0.09901310043534403138 0.83136481648607885031 -0.11982244677413972367 0.36781314839286211038 -0.93919932781516246578 -0.70210405646700213556 1.0631012155863388546 -0.85971155132438292767;-0.18273877862159326746 0.45484073040540107247 -1.9395383231925440448 -0.59288329151990171173 -0.27946856935390618215 0.040243994795579586532 -2.0008658353681529896 -1.9407287302773164051;-0.92412285628841928098 -0.04484135173070841196 2.8121313124709201858 0.61518888398809068452 0.019455950824499010365 0.030594249676901719148 1.5625102608774164015 1.3748194839598337769;-0.53615350360717795031 1.1627620778364236021 1.1508860451307645345 0.81290097686294793267 0.067844490033532475759 0.040167254462858049957 1.9432436367688754597 0.19752223775195965061;0.15271640303705771857 -0.39632243738038241965 -4.1623136066317441006 0.39759483179019861065 -0.090188139065795244753 0.0049118280406271006694 0.82115634661475711553 2.0345708857751834131;-0.78448758687804376333 -0.4195752242628400519 0.51454352336433939463 -1.4897627435809257523 -0.90414525264593204046 -0.088902967853536934983 0.90300296684253178459 -0.73492500460843945831;-1.0123923182857432757 -0.32121264941629390499 -1.3378248108672370353 0.28500611968454775402 0.013245190039451154584 0.042378304239188681335 2.7052873181158694216 1.7638255378974183607;0.7754716589685296535 1.4634687409093984911 -0.42265583075620638542 0.72337745030766986698 -0.89931790909709496962 1.0782876944519519391 -0.032823936847508297654 0.13963008522888559204;0.76688369627772567938 -0.54606341575983607939 -0.14844299868834592848 -0.072909624988192645034 -0.10195575052900353319 0.065050152099761948676 2.4537561759862267508 -0.080696649754124757936;1.8476958512845265137 0.039032939585552872686 0.16295710569033231008 0.27200571116426158769 0.19664079506305745526 0.96248108481044170048 1.0046356132519633775 0.23682347012450297163;0.4210641046037352786 -0.2424509527111773366 -3.3603198402626395236 0.063009703445224343743 0.25372591613285472301 -0.1083989770815410314 -1.6061959656839064348 -1.8426309246577583512;0.98315626780189346867 0.69762225693749024824 0.30358442090422554926 -0.68968130501525348741 -0.66180717530068056131 -0.13882158918131615177 -1.4641581821366764782 -2.442224137940441242;2.0482384190992495299 1.2822452798838259724 -0.73436837548593292269 -0.0015313333976290574578 0.36407693765600612767 0.028977719141668936004 -2.108457634757394672 -1.9618349054258710229;-0.55654310015774455245 -1.6597836046765106488 -1.4329537605295401548 0.2480599496292566486 -0.083145447130041016948 -0.2884319891682198822 -0.20610499966884984757 -0.49569217725568653909;0.38390130641508501963 0.083230747239590729958 -0.35894051078795785603 -1.1670371188269035301 -1.3103542690090199674 -0.058125592278076045061 -0.87018649241202539191 -1.6987299726380733489;0.17288895654359529019 0.57465991606812705239 0.09889853841571889792 1.8144744160318766468 1.0794425014969402099 -0.16794877970766819431 1.4683142872854322292 3.0350668817905215313;0.94163078194872495974 0.94044272337196832545 0.083705179142089095046 0.29416626244161242498 -1.2800352053544929998 0.33762325341561028047 1.2716789595002531144 -1.1151525025306088246;0.14613904021258650179 -0.49841790794235141249 -3.2651289925882402976 0.5035066061437156737 0.076384052000464858212 -0.012542327013006979858 -1.9816312047225472792 -1.5658355689230929464;1.6420654227903541678 -0.015211609440771978879 -0.45514995885848724688 0.094643157888700452096 -1.7534198880222271466 0.14728087952583190923 1.3387603405499561848 0.46267140138038154173;-0.73129168496283869505 -0.8725340855612573332 1.2787890861467487991 -0.84257985094409404425 -0.011457505207261261745 0.051304474147090085856 2.178689446364543425 0.80330230972859173466;0.73739407695871739268 1.6634905658632188619 -0.84309109162798701043 -0.044423769518559738656 -0.01912450836834087356 0.34872664729938701589 2.0552435199390046705 1.9082732756949463138;-0.78770561407139638721 -0.47780278050910468535 2.2343993156678756407 -1.7544675032917587121 0.49136711452875053707 -0.19196046396764240849 -0.88563872109551489142 -1.3679138484518413854;-0.36958924853431540658 -1.292719275109359911 -0.16009297274819747625 -0.33806484923698948419 0.071449937732874474472 0.43004849593444066658 -2.1417872507619102329 -0.14747618242502036345;0.43580264642577931644 0.19802234948244148982 3.5486131530903204379 -0.74288105562963402395 0.17306034524897345728 -0.024271450270424481388 -0.92459730517915594827 -2.5954755536166436158;-0.15482023378758622001 0.27197334036709280847 -0.20839742796084034793 -0.53895461607512429314 1.2019631342407062213 0.97976449511484986488 -1.0283682783681955542 1.3018132962857991153;1.1210273396668504198 0.051687904167434982339 -0.45732437383077634285 -0.21249292216503093411 -0.12236470100436787345 -0.077899726214869610685 2.4248169285753937707 2.9966404388570198059;-0.52605424568944147978 -0.11278225125415397567 3.5472579271465436435 0.6942140794212446897 0.14701672724730366348 -0.071732698835343930432 -1.8230289739431415619 -1.6166607139742288357;1.1210360936008965105 0.85177842057524866259 -3.1081031104137069043 1.0303702238770098276 0.28469462437407572208 -0.11955620031540577231 0.18267548517672008157 -1.1467224054462306082;1.4217767703923662737 -0.11314900351044092364 1.2464316338073400114 -0.29500108594233792614 0.64741495131722048839 -0.21306372452208982571 1.7398215126873199932 0.9351806658876320455;-0.96077028278372911263 -1.3110874162408483468 4.8108184806207159312 -0.71759206321415835994 -0.38393632575831831977 0.039932835125653813602 -0.47913956174953453715 0.51469170785236639798;0.13097357149730015635 0.15046744542427206714 -2.2792966120917150796 1.5006409978834118757 0.78814427885377291716 0.057806695872529706426 0.80619420819696563374 1.6471245715484017502;0.63599544841611321822 0.8859621954519621978 4.3086314254350970288 -0.82642641723478693638 -0.21698435309103911162 0.017499757140320655602 -2.2466673093387496962 -1.3435109812949475039];

% Layer 2
b2 = [-1.3464501223057132595;-1.6242404499086329217;-0.90983325397220848885;-1.8689781656259258913;-1.9783077002480931039;-1.2378141734190559742;1.0850457552548322671;-1.0298160216520853005;1.287507430975776801;0.46509261419827924167;0.92295441809504763508;-0.22562567457728829878;-0.80837868421693959142;-0.098806625569512904206;0.31534069702465794549;0.22603253438119791374;-0.066831367053124354771;0.55701603844838487589;0.52121854221305385924;-1.166391924179222217;-0.49714619439474821982;0.98134368019934181682;0.77579864712507196067;1.259152082616487478;-0.95955012653453841676;1.1522907167189404554;-1.4803601104807786459;-1.2186800070441530242;1.1696537162008342481;-1.5869685709135104013];
LW2_1 = [0.046639891708391056913 0.9632993644908400821 -0.56105892081141506278 0.26729011260385837634 1.3250624968349402621 0.32147323348795320275 -0.056456823770298779352 -0.66712133672166573639 -0.72554897709143828521 -1.632258414525100898 1.2641394657384683597 -0.23467617221589348597 2.6401443562019708544 0.50142747941621723662 0.47163627414596615006 -0.58781584333235459283 -0.63797874338935667282 0.43892630929994885802 0.081849532377680514483 -1.1098680285772868359 1.0565605740155552539 1.1850329347716357375 0.039259781699642608277 -0.27778850427169260451 -0.24375456704028625188 0.23412302437572266034 0.37447404268265205296 -0.15253831291029384953 -0.71589939415002290524 0.096562237872124617732 0.44599497152712630488 -0.75398461237110736555 -1.2681651171367323006 1.971092677198741816 0.48818000515266857242 -0.16406872020456420014 -0.081368889466181579251 0.070050053470757309149 2.0543988456951276511 -1.2701933189705070237 -2.0703787333457275288 0.22176852004981759126 0.17427801818557675517 1.0094246497320296108 0.18166752639917588263 -0.4677613078315580597 -0.10689444855059522521 0.54286263475972273973 -0.51158311877281392732 -0.26238175734819851881;0.0090389888870075953825 0.0042743657472956225404 -0.30573795575214024467 -0.0011056503895391777293 -0.48982932231689951807 -0.052168937376446108956 -0.36263980248346211477 0.19933683362976897802 0.029785720037998578147 0.13308570853798354361 0.25432104916688991203 0.11100771970529392518 -0.061934428824455649287 0.10325143114486595719 0.19190865916818003467 0.36720627939370026338 -0.097347063681419793157 -0.11379753227749278555 -0.088869013281032457896 0.037957256592970160802 -0.071118216760854419123 -0.11714652977574295523 0.1378394204475390239 0.055441148721235115893 0.21758946754683172742 0.33958923845333005564 -0.10240857529043481677 -0.24148730315330549367 -0.44322012859931825268 0.28470113318362039179 -0.026677008840787289068 -0.079293302092293890815 -0.046963878972764272479 -0.11427157694769389529 -0.15445437634672315452 0.086540627666350469771 -0.068172624423357544576 0.015798432459320339849 -0.1551928284802760738 -0.065143471660759774688 -0.03445802246963294152 0.40345217860460147463 -0.32254014741217296169 0.41837284083085257702 0.051429906595877934727 0.082694915957461243017 0.061418596321701400542 -0.43606137903099051467 0.43085440675459329984 -0.33060902690215066002;-0.22172423062968160679 1.596058635589934882 -0.059683212140612861007 0.33186697492976524604 0.72855887768218330347 0.54100302661863208797 -0.64602847131024343508 -0.67296336241470122719 -0.63833668323389736177 -0.6686712265836558533 -0.68309280232537739064 -0.037892816440678427081 0.76264957629837415443 0.75351000680170554524 0.89029775471913663587 -0.65076450451974976463 1.0012491196846802222 0.37042835644860333533 0.073027420725468236706 0.37036019904725875351 0.098756061206149103882 0.14336971038959714364 -0.078059600452993052611 -1.0069812784761422719 -0.62287078830486186654 1.1687440295674622615 0.45809621068641409591 0.18688257244418446379 -1.0603688215478432877 0.46224550922236046224 0.47427801311301293063 -0.26742205738569641005 -0.78248119703788376889 1.7735370546994309038 0.22606495324482056564 -1.7482049762152453987 0.23046350067289003705 0.024214543308831444623 0.75927520579251528421 -1.3066190968678381701 -1.0879433194446874733 -1.5639744623301299331 0.85943963509460363781 -0.2110826213303168275 -1.209493320835249186 -0.21039316824975271003 0.42590171365324125397 -0.88915376886357122554 1.1480712654822757823 -0.34753106474423689498;2.3051709166807365925 0.53299477464080402545 -1.5095092059168819798 -0.27601915861344944458 -1.0369446337791627943 0.31215724823812035504 -0.48592173043344127903 -0.51012115819517345194 0.75486529909740240907 -0.13229686676819363278 1.7673098029927738484 0.30111822913991592721 -2.5355691856911706239 -0.4208666014945092182 -0.028875308829632982677 0.10113047753980990151 -0.33215047762938582077 -0.22388325970686634436 -0.21791829177617386137 -1.039784265847413014 1.5769483840527265261 -0.1997234275021329275 -2.069904303573212534 0.020803442607401391451 -0.47292254094495528305 0.52963184990779177408 -0.50396215728919357968 0.22007521301408816683 1.9381168794034844272 0.52704677842652813968 -0.98386515298023313747 -0.078448365415504386911 0.50547581703535837683 0.052250952685025921218 0.029918752492945635546 1.4116060654053217416 0.055497604270855226127 0.965301211988848884 -0.85023023245051176922 0.36748515745095794438 0.86435207411237835462 3.0523151113281721258 -0.40844008143187121584 1.048665184638220671 -1.1142601143586390311 -1.0671310285431354625 0.076767263934389415314 0.54523040612520390358 -0.37623619750602271816 -0.29377820692740053143;0.76746737072828463688 -2.4786061242123156312 -1.4469867551437181064 -1.1945977546685067061 -0.2388414347675721916 -0.95602185692889340984 -0.39671721204764409663 0.5623393479946783291 0.21911904317639371853 3.0592940287069909644 -0.13566365342798966664 0.986620809302828361 0.12873086027317681701 1.0144999088668538167 -0.43425845068924284753 0.20178610447526437732 0.46268261448297498539 -0.81298451821839856635 0.38304516477378464101 -1.9229168536579712701 -0.85022227422737195468 -0.0062470063451088497439 0.73347362268215687831 0.37253529975526172846 -0.44284026107849483456 -0.5298468434959899831 0.1617730344310241708 -0.28196310962847881409 -0.34500835052877915077 -0.091344083502535700081 0.37628841275632257668 0.53542266880313638122 -0.72105554382120640167 -0.70477550240929276448 -0.48638320771295068257 -1.7564377699454929438 -0.30710022520214996788 -0.10401844066499882357 0.60728808451480431607 0.14016085987772941568 -0.21014808645096760831 -1.9917730568543401404 -0.41996596866296265205 1.1516416908211379866 -0.71704767174268702057 1.0716479399915710413 -0.69887664438170804537 0.83935891062445033839 -0.81547503974952928463 -0.17062311683208269963;1.837216515737351008 2.0320423922648904735 0.20734248654278561452 -0.36570957116465974135 -0.61091515064145052172 -0.20061002631525778894 -0.41306043737117398296 -0.53447870913298878293 0.70841437352269676087 -2.3168612020890524406 -1.1952378363904698766 -2.3276958104648937109 0.37238369869727311334 -0.95329155343829830027 0.55565104396968756362 1.0593710669985512141 0.17483278654977243982 -0.42035387466739687623 -0.033587563773190068361 -0.48167209446303810294 0.14653038209572796791 -0.096434753782135479439 -0.065355739703457121914 -0.71653470013457321031 0.49466581980745338853 0.36867942055463159834 0.41832464292486132296 -0.13376652655962514848 3.4530361685670123428 -0.38028323906120331532 -0.31168466009261769356 0.020692523006659305912 -0.091975617145620885973 -0.37044688566082878411 0.54167873953313416813 -0.56945636300059554458 0.99345217174423716688 0.61428394779972328443 0.54651428602810125934 -0.6597592451343531339 -0.32726582116866270722 0.13803546156740609252 -0.24872611206097275383 0.612974020328448721 -1.9602082266791580611 0.52625647888217641501 0.38131679957364517097 -0.85886223509099568485 0.42978577385266608646 -0.74106457496545796726;-0.21597245669743686536 0.21192482143355692581 -0.23094584796844652708 0.24002305601882634178 1.0771760854268013219 0.37350683496627912206 -0.68706077986218416775 -0.29551862863369704471 -1.4010553854162992593 -0.26943173606907960815 -2.0717123707850668701 0.26590998342200450333 -0.017265527269739351646 0.044961000348890611811 0.21267735310759358636 0.27278079535108895604 1.2124450776053143919 0.012156101323416729915 0.12939367572404877893 -1.3708533783944383266 0.18618547895503437251 -0.24711325286225202524 -0.91586155321620155156 -0.26974083331639608918 -0.090794273578575834804 0.59997025593997910242 0.46447189955176076959 0.40651833630670930475 -1.0865907881233944909 -0.56290897078047485991 -0.14776001522911696995 -0.5253831689832687557 -0.31167898472253324771 0.90101507956056892112 0.47778878986351724922 -1.7851725966039397875 0.35421598754733779613 0.1425687211380820274 -0.71014348487294765011 -0.63796070120413250759 -0.011668628528313317039 -2.0254718947413969943 0.56456794864028891912 0.36991313530489988715 -0.072146342778881641933 -1.0064531847187090374 0.4492931451704318957 -1.6092759450839630997 1.1303462590888937456 2.3747940374751141945;-1.2462834178746708957 -0.41458536753094815674 -0.69997018969694335677 -0.37628326458629124396 -0.17716503146387502232 -0.27294020623802445202 0.56121483801993288232 0.34064266307357421448 -0.4276941122980890686 1.295406890866194205 0.48416890377581467408 0.43259183416789903642 -0.13102828541859495859 0.40007892523357602155 0.53736829616193471093 -0.42164946861112284626 0.08519693652329769773 -0.18620610984288726852 -0.68307295754084174089 -1.0192385406282604698 -0.29242247437934720811 0.45215671988127448255 -0.76455099543127313932 0.95142891924828398853 -1.7849652611980291184 -0.74614176204660942471 -0.031962768623629532472 -0.09334292323154717852 -1.3437856648876795873 1.4675304755228819609 0.45578975353164058459 -0.052768094366292969677 -0.393472195863483587 0.73958664440175414523 -0.40963642059530763762 -2.1365064693910680305 -0.66950239265733602068 -0.11159305436977196013 -0.35143331652761977679 0.3115506011757936955 -0.14991053703196105529 -1.6813751414022692909 -0.50590005387497050116 0.23879871736591345988 0.58549099537102655688 -1.0009264365528287577 -0.61889910645165258085 1.0063703546590432314 -0.092117601645370417174 2.0948736492358444039;0.32975140365298682976 -0.52159893140751445451 -0.58294501935731368736 0.60631349428721192929 1.8040599221338502467 0.045349380906195460583 0.0833902393691837579 -0.19687430145731821263 -1.2312651815468953487 0.69642892837630610003 -2.6040747651934164075 0.41469484951921137261 -0.45934202485716657538 -2.3095008014790265882 -0.063453668786221009701 -0.36173311392512169649 0.050925336293985490332 1.192983404703703787 -0.46040554011096374021 -1.0002185910065186647 0.90493819747507364681 0.37092051111100748928 -0.20777264012680385363 -0.51619130944718283338 0.82073861617322330098 0.40841824316006503093 0.36681868214235807679 0.4321914231654737093 0.55579480283297899579 -1.1711864901591684252 -2.7668842451221751233 -0.60256696889907435111 -1.20534455583406519 0.45921149321023790879 -0.3021333287448823568 -0.85645601483091526873 -0.35837587733638048837 -0.29768774889840643461 0.97213635433173839484 -0.43626845021724208751 -0.89645377142587978625 -1.2559152991280511102 0.64327167662129736136 2.2794836991773310686 0.9701132761703080698 0.13110349393016776376 1.2768477298881810711 -1.1813253940928514218 0.07940912400991981257 -0.23484401038420649188;0.28458915670206785808 0.017909204975758728773 -0.72735917967114094296 -0.3477838711648878478 -0.50360835038155682408 0.60652203884142219525 -0.56330518455758171736 -0.28746685492976359333 0.75020775047267473923 0.40409397702454674661 0.46724792459276637269 0.3722014253390930616 0.0088826789944731823767 2.5381801172591686999 -0.024574124069637791334 0.13631618458466601695 0.51683690281750560569 -0.048534854572576800746 -0.044812358824937947865 0.17791582264335842334 -0.52816197500460670966 -0.16663482046025374084 0.45748786930271201356 -0.26427721762449463139 -1.4275888636297999756 0.059652237851407621805 -0.73344213002111824373 0.43722657283962756969 0.30538679282947223115 1.6141592773600645927 2.6205054847392945661 -0.4237070561630776333 0.30921622680795984861 -0.0030116746936129680512 0.59956790408744076171 0.28476521305238927662 0.60245413647371737209 -0.47501345498989472338 -0.36737061632645168219 -0.26119055933291179805 0.17749394537877824507 0.90144636959647295171 0.18882260621344110207 -1.1826766598755278359 -0.3908462164570719044 -0.049315912140733490776 -0.29481343404972987221 -0.6781126943273116936 0.66394742949487872696 0.54240179647671216134;2.5628000215448327737 1.4544706755038558921 1.2197078422913503193 0.22936854611769752488 -0.44094517675586186733 0.7318451053235953685 0.51391631725094477634 -0.49861701379153666736 0.69210642796239130181 -1.7803309637116333519 0.38918692751996308843 -1.0304463332303763767 1.021863526251472809 -0.95327333486270937613 0.69215937808030747469 0.15722141256163771339 -1.1843555490206414404 0.22654561612011417382 0.033201910062427807124 0.11101770145034928206 2.4365597120427890943 0.35371285773800720253 -0.56409534833198415882 -0.16613370610955149886 -0.28082891401837717371 0.00041634592402530878202 -0.22435135983700085771 -0.54274051637472831011 2.1455818358757179354 -0.0012226731002389521971 -1.0867995715166813842 -0.12822220129189623727 0.12440218259521679256 0.22617241620073558206 0.54429052268886635169 2.6209087551758232237 0.34018506633469874911 0.43403099766780312008 0.43804508918519663441 -0.20855757091616580756 -0.55551085986599835209 3.362687991977028279 0.096769110749027220653 -1.9704267482944901602 -1.6315188104352915666 0.34794859330500371719 0.93107151770641460864 -0.011665338181572348225 -0.059356801548015286629 -0.86857558322391148486;-3.0191603039370709105 -0.62404375405517520381 0.26790605463812211529 0.22797261975668703382 -0.24616261873291286899 -0.26259272923474180628 0.21709115736296041854 0.57106354547042836867 -0.091983012320445797783 1.904779684237313031 0.93119785164236434927 -0.75281108615931202621 1.0952664185896876514 0.19792603500413161188 0.90975661017756170867 0.48931119841845349683 -0.06764505748632941573 -0.56656715160218806826 -0.358849952804195238 0.94297699883331786985 -1.1751344484679533409 0.70294584661064751785 2.0323935404158022244 0.099236674468289487461 -1.3111587542052465238 -0.87513337033357629924 0.5202745689386779615 0.57168653504449529201 -2.942727248783282068 -0.044784207684190620313 -0.59775229953833708407 0.030435131396286538991 0.62127422671429399781 1.1749814278250680921 0.01788995533279853084 -1.0694174464562968829 -0.40061886271547425542 -0.24674415337630289935 -0.050725408562858682882 0.67887868684203622749 -0.11175584204695492019 -2.472250954443507176 0.22746071704584178153 -0.81959017931309940952 2.4144323895873567309 -1.2370920758885437518 -0.26129233782206945369 1.2057363327643944029 0.56594029052825867154 2.3777116658090435841;2.2425622192415013423 0.99561641892543295551 -1.4969598168304503183 -0.89536364018928005226 1.4621648854738604761 -0.13489798214927700704 -0.71221932025555190204 -0.14861548204722563327 -1.270132834082643658 -0.36500963863639074303 0.056745500825591016492 1.5843899583247704754 -1.2537433120358856264 -0.75700816390903280517 -0.47690063625430278993 -1.1304141010683987911 1.0175123680496094281 -0.035419113846826597025 0.33957226679382063184 -2.4539893544066013753 -0.12644962249620875228 -0.34846924170922166653 -5.549459298692581477 0.0068050366174178186784 -0.88565752349671145183 0.43673332844732221103 -0.29690096339129862235 -0.31502660586366509898 2.6403441092600226092 0.30311577443702297785 -0.73466162629751929902 -0.71658594789281193638 -0.99175388161503919005 -0.16790073438853070353 -0.22435336915590339824 -3.8039007500711252696 -0.12979838273883975708 0.76739956280953292023 -0.052313886274989541969 -1.6742422300568775562 -0.072050255961755571565 -0.48474488215445826755 0.11478003846434417512 0.97644973742040830356 -4.2225522647831761347 -0.12755438142001457313 -0.43139920178081381241 -0.47682069808263233268 0.20664759119885858785 -1.1394722700829311712;-0.47694815961160325068 1.6510410304666514048 -0.0030605001547141098654 0.29197797780494827435 0.19911479784005553517 0.31589602981269337967 0.20362790356490143018 -0.24905120815979284177 -0.31664425740880375315 -0.92350192969602251658 0.70132277136553711205 -0.66047952547327615225 -0.017829628287537410691 0.20630096157616725772 0.68869760697552351303 0.15366502737672116385 0.076304985078227555162 0.38575479100723553127 -0.10749734976082986337 0.025803293704894345734 0.38263555040805596885 0.52586448058990553633 -0.63603875412612331797 -0.3442887656759182069 0.075672033064347360432 0.69471116932052834336 0.71267544013021155713 -0.10665652080592799567 -0.80844969837871760721 -0.15998596902888631566 0.0039977642577348811853 -0.28841686349614265028 -0.053754732642466065973 1.8677979996744067392 0.37198513641889402459 -0.010880708527533854493 0.51528031199187029898 -0.54072848385047866948 0.58070443154209017145 -0.58585261080572526016 -0.59943474065717272659 -0.36159691737516680421 -0.19501597099861844864 0.1792120240018426347 -0.90716432836607774348 0.089393727675125198018 0.47918496869112631176 -0.094067256451859065924 0.60346012026636219883 -0.62107690063531173497;-0.14575555163578232665 -0.059897906140600656877 -0.2059154622825640768 0.071373594910720317142 -0.4570013177711619301 -0.30756120123868668781 -0.55705324847862325299 0.24144198004187389373 0.42553639825620681592 -0.3494126660355845182 -0.47865277499865854782 0.54311492913494441304 0.45102013739367391443 -0.46163882693975955007 -1.0904983798914693605 0.14602676358315000438 0.51436898988704682356 -0.041348770992288175208 -0.20691180578718318395 0.91431438144699195281 -0.59607421094369239523 -0.67501414371567936001 0.077071343624826579854 0.10691447594158311196 0.45452011174733614185 -0.46721249940070325168 -0.28748241384050848835 -0.06786448417176708936 -0.34455047506216579523 -0.38064019721573671973 -0.32651737053830404145 0.096813616662700774373 0.48079878916162799296 -0.77233922279828537416 -0.24473369799862096374 -0.64778383070575096259 -0.63630525542425186991 0.32987892890282005665 -0.36924439250011303892 0.99545645912077396211 0.91384081672753336711 0.73949491453834581556 0.51867075640449977758 -1.572900814728440233 -0.046815158683896011815 0.32291946625646061886 0.36682803507879069294 0.72411079944725875723 -0.60820459944942095731 -0.1542687959706277312;0.52526172660060954644 1.4537833203023331485 -0.16661898571273150993 0.43052460251565699556 -0.059529360614822966757 0.43088312756876495646 -0.11704165828047270737 -0.32478705950796127322 0.40130808071593054853 -1.2802897374822186372 -1.7889205986709928453 -0.76991156363410317987 -0.36128366951024831755 -1.6378611169266275027 -0.62635041845604755295 0.25249442847396086353 0.056645652930635899402 0.4980949030578150083 0.11064563876697590394 -0.82204227760604176023 1.2646256940682649716 0.55417253933363819218 1.0225381319467985453 0.14614666473581322537 1.973683526630995777 0.028819568696192683632 0.4510740458086268112 0.13452312476009778419 -0.27587103371143600894 -0.51906791634608284713 -2.1785813770996704797 -0.35155689475212570372 -0.91272282144916405677 0.096094943870358814908 0.0053923425827778152103 1.046274552772013644 -0.44537012709450940484 0.68131403682977431657 1.1976269700141388697 0.50608007571508029088 -0.84998969763318554804 0.77604413804586180881 0.44458200921741614087 2.3384134221960897193 -0.66486059860779678221 -0.54684917622249362701 0.79993401558326560075 -0.72045435394346413194 -0.42062637662306634478 -0.51509358589823550645;0.69606792798485450646 1.1668619459397062688 -0.80542223447410288273 -0.41515617369809709736 0.71142284563022184507 0.32447402637741773468 0.046289778553649657544 0.0090266846520054531966 -0.69108664012657650133 0.72903140923844911292 -0.73785163218220906067 1.3489699565874238019 -0.43007328613581746746 -0.99983071625743324962 -0.60488700734399769576 0.053144638035836799794 0.30049833706403539235 -0.69311036896300481924 -0.14125409583948658754 -0.78083518485224379102 -1.3936067429380651905 -0.95037187475199569331 -1.9327728662667387205 -0.46341923926973876968 -0.50013032771591525716 -0.19343335858006419081 0.23212443274580113473 -0.22734893544451931224 -0.0010305414931753155254 0.52063769778837387658 -0.18616398703288136729 -0.009743972640192987214 -0.69534616389507264422 -0.34572548989447904333 -0.062220986820826419683 -2.6346279804958041559 -0.41602299174434670403 -1.044458540850429662 -0.026125272173630510741 -0.63235894418585347765 0.72014205104829875914 -1.5970644025094486995 -0.55086796588640574157 1.0764363866554744753 -1.667554563441415949 0.52935106544469445744 -1.2781020648506944415 -0.085674033454133102783 -0.7747746669388391183 -0.58109372995472352574;0.24002169981804918897 -0.4177924521860043594 0.54902625551046257968 0.46447563994903945384 0.070357632571240905084 -0.43988019151923063443 -0.013948789546154471974 -0.23133176383003850596 -0.81381926261048898041 -0.19129954855985151219 -0.21540750115912965512 -0.038762084037321141439 0.20867682489588254557 0.67708475215394536839 0.61629293693021924838 0.083644462600024546695 0.30033088074125968703 0.69864550538488945364 -0.051642788118952960563 -0.39514345496566066762 0.021832612137151180542 0.18389647652355003982 -0.81424688107868503639 -0.3463625623312536761 -0.76510255712672670114 0.64964389122627508311 -0.59799109465129329788 0.10359383836037620863 0.24227625600191693422 0.42713507152436352987 0.19548678923502157967 -0.099657432518767061214 -0.1250749850267664498 0.09167945806806172826 -0.30331300554642870448 0.61044461939094574188 0.42084555839239701225 0.33738795680058064619 0.37522169066913946267 -0.46843541157595286473 0.04079464070452027552 0.44666510061517333829 0.98877947949410160966 -0.42947100461679998951 0.11888383256928097831 0.40270784065071840718 0.80464401609084812428 -0.31978962239401698131 0.079057849829886589488 0.76825095406408328014;0.14492271548452614893 -0.14108956758583696134 0.43096637909834734081 0.34704571227240116338 0.64998606805393199792 0.43519541537743067217 -0.04474923530132828009 0.47293453993473111296 -0.56518663595076590322 -0.041781715672996218303 -1.0167572119641172801 0.055232318898952692532 0.1321023660076932893 -0.021480683592270219395 -0.086302011246704044001 0.16333028072633876127 0.43751100384407898281 0.32900145448172984919 -0.34252181374572271411 -0.68694430243207105224 -0.52780949449999903234 -0.23266504475978680433 0.48306807726581996176 -0.14016593767100429813 0.14464773904148187089 -0.20156239440338477587 0.47429258363366433304 0.068111880113313913454 -0.0091420765655502098102 0.36664548219171022581 0.062967271036920569038 -0.21710926210983985674 0.14935863195113832647 0.17215173222764693084 -0.084075983458837683093 -0.82840551172748688735 0.3393233596433192778 -0.58300882207851012495 -0.02230592196605909322 -0.61993700574495269606 -0.44643935177666338454 -0.38820467598086028094 0.46656088980012960787 0.93969529695095532773 0.29645046500272770329 0.29149919296933429758 -0.61951946135395463688 -0.21438655536469636287 0.66698556366956840424 0.053552631992732580013;2.0065117411041009099 0.075186140562459743975 -0.54618456328388875765 -0.8415640313185864807 -0.63697942647730443344 0.15845385547207710419 0.13029499469391406241 -0.088184627746109675583 0.16298817070842097632 0.048033359825722724001 1.5577011017551825045 0.50643718649655744546 -1.5620251423563931148 0.50830056767433162701 -0.046311761203269248555 0.69374139194672612696 -0.46842693571874860492 -0.57984201449012984231 0.20879470473825340049 -0.75247559247518991388 1.905697522077721251 -0.38573318445528104181 -1.1418139425275264376 -0.19547688868407117613 -1.168152158477335556 0.014765593397914104912 -1.3196416517711655469 -0.43071408238623315468 1.6632085946069175009 0.78247096625465717423 0.4720603836313368995 0.63619683171284113765 0.44972541071864574613 0.24363996898151113468 -0.17034837522168441715 1.0574467734611396885 -0.86757190118962312919 0.12497802048176229195 -1.4035089584672664209 0.75377716285973772603 1.0534463835300247325 2.1454831990192348989 -0.78482713453315899876 -0.84133402178344685041 -0.41191057976426898035 -0.48945705352986440539 -0.16301185943551652069 1.4170779381363618477 -0.36349917521123292774 0.45566482217716697267;0.48482871739625804652 2.2897419948082711194 0.88811990653422845376 0.20776888643160598691 0.050370302193399933699 -0.038070017590467769564 -0.57897427311770699454 -0.26348765518631089844 0.35024915292622871288 -1.9929246201205812472 -2.7423836181919014621 -1.3074093485999245257 1.0240603345130372404 -0.50939492743732239788 1.0364254433975699232 0.56241432127620716308 0.62363317090590564273 -0.034198784279719479651 -0.0070294173754924926117 -0.65234309547503832594 -0.26669236343962288149 0.30477513207177836518 -0.34390164669451361856 -0.49282263291721456477 0.87240142964356204303 0.62433983965228334601 0.64845870747871248163 0.28672665802930924484 -1.1057348306284700001 -0.53922891676315554133 -0.94477245859485137203 -0.77185342559008474073 -0.069951771906450230243 1.9766008949798437033 0.57466502984574818758 1.9928379783076346499 1.0241882356450664471 -0.05070361447357604745 0.071756729096008400881 -0.30425968931692126684 -1.1986339382725661462 -0.67174620580658861435 -0.18120485164196734051 0.17946824255861432151 -0.76967322247161729099 -0.56262781032440989382 0.31349515420733953253 -2.2198349893858333459 0.95004163563188814834 -0.54159792647109894492;0.81874995004231543305 0.2395292676517500885 -0.99964286663898982432 0.1076879297273790892 -0.22051249883613599501 0.37839740946061123372 0.11423737994612757907 0.028649343037146172281 -0.021751383752014200046 -1.4617647137372320465 -0.34865823300763199022 0.87213331709629859922 0.45825929728494524396 -0.17473415726199523212 -0.66044203055817551906 -0.32651598456660341219 -0.090858803965446932605 0.21380538456424297289 0.044725950866583485954 -1.5870626330989561215 0.71537917584770915891 0.60675946257984203491 -2.594720725926490168 0.20880707429279221632 0.91158987445105132963 0.065917979052871472634 0.43155175784221971869 -0.095778803706774148785 0.061040571188652865964 0.76141673542430399202 -0.8001407237036376463 0.13436427712532075796 -0.58003766645776688726 -0.47532375856194020169 0.029610797869485117051 -0.41138484228823879452 0.33506344444086016976 0.88597111399996708592 2.1353281904401639757 -0.12108445245330150264 -1.7353357315301514152 1.409261269144598927 0.58246685238246143079 0.98591060879321756882 -1.0295096502720106901 -0.47549068937042410221 0.58873551536467050305 -0.095493347584067619915 -1.2574702277154239383 -2.4710651787025508241;0.86810257443471128269 -1.1023244951890656118 -0.16983687279947343174 -0.022198506847083025045 -0.44117142707404616297 -0.51454922144335546452 -0.23670743044504796715 0.017785623550680487726 0.69953331004089813749 -0.027983639459229832369 -0.068961835705946605835 -0.20079536945913339929 -0.53118221195321124739 0.077687772849835148858 -1.3730855558344892131 -0.00028763714504610938443 0.048191219420040953825 -0.35021380512743555125 0.049076718545375576375 0.92271488654391697892 -0.61460969780979091137 -0.66405977677716354624 0.061248959386384971282 0.70829092640167745643 -0.048601917144946264748 -0.41404323300513240502 -0.15534850895529972448 0.39716454047607163691 1.1045080770983355389 0.022340901763878377034 -0.36020234545683749161 0.72601009042055486553 1.2302395002659998191 -2.2336272587237027132 0.13023550637353914494 -0.043236797667423616798 -1.0534547446964828143 0.21596174933696232756 -0.23252606452255869529 1.1227180984385780604 0.70095298299763586503 1.451687314528677275 -0.065425417032376489979 -1.2826561145839039391 0.68570947177645680259 0.77234238229455265401 0.048002242503981516764 1.085511423444907031 -1.3553117075268501512 -1.4853542744317238533;0.49660674444780716907 -0.47412759821465494392 0.70786175706164877752 0.71499796902091261597 0.3752129266715153455 0.54979617687355375466 0.62395352815390814349 -0.18810680446639635455 -0.052546114402613419703 0.038169149345642500171 0.69250254962697443961 0.38546606609514960651 0.33098617404675112486 -0.91342767205274177922 0.31020425938300577595 0.11738137389431443913 -0.60397481225554250361 -0.045410937357084582566 0.25666713817716046986 -0.28662647789227085893 1.5050210797861249823 0.67826188964609823717 -0.92498550102645538118 0.41025142538815512205 0.90157128865015612185 -0.1747275196278635645 0.52849671189768365753 0.22189573322232858388 0.25139808691745940683 -0.48786750053639527103 -1.0805889090837035305 -0.24857889510664732402 -0.38117433058631555731 -0.24610222269295681241 0.26070403646701439948 -0.70496377935278853322 -0.57842708599106096301 0.43647249573829283165 0.66692077461490528734 0.50418167204713004725 -0.57217487812034939498 2.9579351526238970571 0.21206807387910345253 0.97358549403409111456 -0.028388223109462887295 -0.3673508358990609235 0.44042686915837064854 0.45618838786142273944 -0.55261404813874914765 -0.097279191695615579993;-0.6713394491450367374 -0.60846891988541296215 0.32191425344897356409 0.048028493599691135518 0.025695103568266680627 -0.070900207020265532121 0.27991404447916889975 0.32387837655251694446 0.47576743539336452393 0.75028304903024922723 0.21827506532469706513 -0.30094103093309709784 -1.1489932285753570174 0.65789585453956833661 -0.20540591511637842914 0.19071977850285867784 0.16601280955484926105 -0.50620247357746450678 0.04907415286379514241 1.2482295450838092332 -0.68154308747028802262 -0.28650443159911120894 2.6817376460588540077 -0.30820423764618870566 -0.41297753927588021217 -0.047832284182954327989 -0.29233132483363716281 -0.049735502135435094573 -0.29736937935889695694 0.34241990900682728327 1.1252918858985545558 0.34162480603321582207 -0.16754139447533897278 -0.094870034643694450827 -0.22990282016826976696 0.046388049899232196294 -0.2126838220172583005 -0.39462349782420852451 -0.23146582149748826107 -0.18997181829431783462 0.90169311725990197726 -0.8751297076970603328 -0.59482186211337928494 0.343204932484862002 1.2676181541425537436 0.31990483598874386306 -0.83200157239862548852 -0.42348615256706056975 0.68383450767259756908 -0.17797526320647261144;-0.74696325571708888091 0.83426937141578694224 0.96718071972369501488 0.24453040713419249563 0.44627691691727444656 -0.48369561494984997241 0.5566432623237200783 -0.45711479874454274963 -0.3231628214276146549 -1.015263893143552254 0.90857419148402163156 -1.306502638394807736 2.3429134498876473813 -1.1413450853329110135 1.1430001257239255086 0.46455957791926072442 -0.5303158074527053456 0.20220347326862683768 -0.15489052666427149951 1.3459945145966167868 -0.28891972462992865367 -0.795246881814002049 0.76521478810952037186 -0.24664580658363494114 0.491000458448079935 0.079169503485045755742 0.51601976781813152506 0.39385432952513710347 -1.0736607079742785942 -0.54972401976496998444 -1.8291391492685644682 0.67794597205852769051 0.53209082382753614127 0.26375293985396658369 -0.57204601024869106141 0.86193057836242525926 0.82638713079497283509 0.025220561016580832908 0.16793731316700566403 -0.17824698919906714623 0.34499225420881896031 -0.6224856627364443451 0.25056288219882860702 -1.4931676144704113529 0.46449645768186093031 1.4411318734498974603 0.65908623683359979228 0.80892991332155683715 0.31987853669434651582 -0.89734810318646007765;-0.31837247306987492834 0.43180637167294194656 0.39953667204001941382 -0.036020247150257402036 -0.51223928976728616558 -0.10745077952068174398 0.54008234478823469171 -0.2156156802973444031 0.69253254252033924487 0.097684132559783587446 0.39099450758345449808 -0.10229078651685413748 0.47409291664390412757 0.33467466883448138137 0.26633067771066099017 -0.11278043577434326838 -0.55190892626750887029 -0.3986659995397491274 -0.026558533412446232169 0.89730172950463815695 -0.62572595074328496434 -0.48093191175917804348 -0.19429703038352783007 0.8825936342025890724 -1.3273179429278549879 -0.37337852134522386827 -0.3241799043468590602 -0.38694127666366379126 0.20680881831385813929 0.80642528749414688072 0.35869136141860058498 0.86086068090736245217 0.89276626130680325488 0.58800058908401964253 -0.66826632246217565481 0.83129169507210876056 -0.053757002989710048202 -0.15723468189551514929 -0.67693138835068999981 0.30729963592573938946 1.5861587728421984167 1.0783736962027512529 -0.17286817637392726255 -2.2917122300053329731 -0.68534803591213266927 0.4823050710410363151 -0.43955553738662317409 0.25249665170256929692 0.030916442023367598363 -0.063502378785602608957;-0.20349605839976600552 0.11745170186454412242 -0.37179865221386876328 -0.074191477230574356949 -0.42108831046514494378 0.078905340817206862103 -0.43767541161188744381 -0.49579662554072639891 0.20916680701743906035 0.54344918378963702477 -0.1456724277504884979 0.40934341208115293531 -0.10636388750610129006 0.94043997726359418454 -0.067982744094479186092 0.12141615071683151128 0.17090020707764505548 -0.18499687792382910057 0.21567357492794461682 0.9982027200616468976 -0.98471029571015367132 -0.54017705251291703306 1.4449756016960439986 0.048821336924229262466 -0.52813468449075584576 -0.18660357927524820476 -0.77529523898695151818 -0.19977749100257424786 0.1911652153126607856 0.50826225124000490307 1.2852528740272823882 -0.19145538452541785435 0.84238243559983194686 -0.51251259061294074382 0.25877177698915787563 0.64359575709186211956 0.4846450036903144909 -0.47004841821499265819 -0.38333439746823211314 -0.18111799961412886062 0.36749667714488348791 -0.75024950549483160334 -0.16317668293939038837 -1.637448424967427707 0.55760931884863662589 0.62012545306693345193 -0.11098165312936919547 -0.21225624141966209502 0.58291264679223242506 0.71523190832402427919;1.9021725298541638516 -0.19435660714605892951 -0.58895378625870420386 -0.37788289447903006257 -0.006773229095869809889 -0.61317504076135576074 0.17073638039870203675 0.069413500195282223926 0.23690054037713653701 -0.17015458903160096682 2.0490840967943775297 0.63203142137082091168 -0.82139348790017319146 -0.33965648383939078814 0.29091299076360449538 -0.34073738908309125772 -0.22650494370367826868 -0.33789649014601835786 -0.33822235877050049746 -0.55355901640904014993 0.24805871575927637696 -0.21386287008520671327 -1.6176151125684017362 0.12966751792019848288 -0.45428262696570242962 -0.23855578619117925876 0.082007028778971285954 -0.14328157218404563578 1.403668242512786879 0.3579561011324558506 0.14978664984828768403 0.74162765395556073944 0.40581996620502419626 -0.016207913589132736526 -0.51280520781531602204 -1.003587399140063674 -0.849260846175001749 -0.03112663666402032403 -0.17995963630183114956 0.24829212280311299677 0.058619173492052506491 0.7895684398333041587 0.052425229033569047121 0.19331817226284395139 -1.3059318487578568391 1.0718301225715118896 -0.06956148596593476896 1.6819034028272086267 -1.0810331615985737663 -1.4353867495591008385;-0.28621010815989700315 0.87829689172168756706 0.17794742907029209578 -0.1931466958799734901 -0.51161627091002537249 -0.10025418542813738232 -0.38917939927664185751 -0.28245502350888346266 -0.23083693549364878161 -0.49317653750195611373 0.38172673570686321831 -0.94832880665542274023 -0.21518680353279745487 -1.0245679042032156403 0.07432231514705091302 0.52471073113150046296 -0.28078961050756456874 0.052748057747182178212 -0.30483045894122184905 0.3422276048963415751 0.015680850842105423237 -0.14073426586916107373 0.34243602123798577708 -0.18693408298843827708 -0.42403272677276510061 -0.095908492598010319785 -0.067790075109183417501 -0.056379468357364535824 -0.40744358259493224095 0.021013021562263211467 -0.8414571544628304256 -0.32083075151314538465 0.20609334379488325473 0.2551142042609419458 0.27166579086920045194 0.21564371158217718327 -0.033441907742002521808 0.35320017533358233353 -0.10010400186811263534 -0.36290069389670259747 -0.035099232625889945081 0.16725862837366922697 -0.15328179030100946845 0.013008125203855450472 0.085321243142875119458 -0.14666601138119805814 -0.28524193154488791668 -0.0012583755626659521871 0.44180164079510897412 0.25116326307506242621];

% Layer 3
b3 = [-1.2542902096005463797;0.65740201535704911873;-0.53002755401670365032;0.94287951422256366385;-0.78431060907874894372;0.48125934721093527324];
LW3_2 = [3.2381182723891028807 0.69877539218782080965 -0.21519818959896325206 -2.0864748904229766246 4.7704950327355755135 -0.15102488857839610481 -0.62188781807388249234 2.3284075657702674178 3.1537745659433378265 -2.1018993689803751046 -1.6957037886644950042 3.9967732526259625025 -3.1049662116273823997 -0.45613268353949054656 -0.79180871234404870407 -3.7868210552536445412 -1.3830928786076737147 -1.636251394030186157 -0.42285583800705567326 -0.039942522695912495434 -5.0263244416623971134 -2.3016685342810863091 -3.2147924924857722573 -3.0843263562512919229 1.131773939783115912 4.2992684072029918596 0.54072145988953612683 3.0165130016673948887 -2.7852566754418850437 1.2047582610277520754;-3.5497354776869580739 -0.96079594679942315061 0.91768567578305892951 0.033350666655912436509 -0.7201061589171241506 1.7602818503693382635 -2.8141375966916370999 -3.7384255849673291294 -4.6189101761292521431 1.1547028047395961892 4.0241927754658917138 -2.5369347673457300907 -6.4680120976255590648 0.35037062349059255872 1.8572345420743621158 2.1619837640316066363 -2.5883219414560199034 1.6213593928042331349 -1.5059203527411291201 -1.7220979715998181447 0.81676865119033925655 3.6658827097699182573 1.4584781036221829975 4.0878369250490891318 -2.5222490597502029708 -0.3688193746387934957 0.73284564237512539453 0.14842681609513255769 -2.1350943637769717043 2.132841958893828771;-0.077098438232590285613 -0.2581310309362783717 -0.06415012630625113732 -0.0038731355940388816593 -4.0403067057714947552 -6.6940516199719786172 -3.4225941173271694495 -2.0630226157849906876 -0.8481017496214817708 0.052395033383105062141 -2.1948739960687957407 3.5090363864197451349 -3.325161209216048519 1.571659036393904918 0.68740184727573705459 2.8139366372137528671 -1.0896955338990212958 -1.9015049747709931172 -1.6326085404268455559 -2.1167855961662391806 2.5144899799397197881 -4.6554206715689829821 -0.47208104981350940133 0.51145384381178982114 3.0371841656798399534 1.3645762528360216859 -1.3027905196009552657 -0.67816089086938979857 -2.0212199205904402 -0.84480710392696467537;-0.67621339589276951987 -1.3517012926015521401 2.2848817527828808593 4.6519384204042042441 0.22289792279903025696 2.8966961061796845378 5.2659960075338885233 0.72086707025621610256 1.0156272416868481479 -0.98291853883983704154 -2.2987096809924172369 -4.6481724945994171705 3.2863457475338799796 1.0666091042407017664 1.8737840082650303319 1.1690601860579672433 5.8356734801592553552 0.77345484822988808116 1.927019622687651923 6.4134424113793739863 2.2957975392948877236 1.0832793153419786325 -1.8850897126710504104 -0.99484022316571751876 -0.76655676865619759575 -1.2634823925180083126 -2.2972352278138341575 -2.048975056700347519 1.9237926041883020023 -0.28842338580097365286;-3.0238020260766544922 0.26196693253080050034 1.7272202979421427127 -5.1962854704680259132 0.73150674764554457497 -0.071557046133462143267 1.7289107475934817337 3.0751205659698181982 -1.8443950074303756548 2.2971942428318139484 -3.1750886105758153732 3.8287179389153669362 5.1398045285871525323 -0.18528243506930425211 -0.26792685317128345224 -1.3127807593434579481 1.1198475995187320287 -0.50831163485394981194 0.79309083342895836388 -2.3167361463485791617 -1.2784701391319943653 1.7708728878207768975 0.49141912727519160287 -2.1973916242927322706 -0.09173600588043091808 -3.5544167435656977005 0.74989907239714037601 1.1822092060805196034 3.4408996753830400905 -0.58889277526930394746;3.1697740529463662718 1.0541571823071185232 -3.4801257116743595788 3.7066055074861110619 -1.5796615883688991389 1.6806189130396900211 -1.165829003009382081 -1.2073553531576559639 3.3237284487562934743 -2.1512612102587334029 4.2397015986054613634 -4.3354516317988931462 3.4962285150938283707 -1.4419097964599210115 -2.3437343556853282855 -0.51503771966149558548 -1.783232838801642961 1.0109521562589904864 0.12211030588740558189 1.1009144732952247381 1.7779757113041076977 1.2870026471517304056 3.9910086360640990577 0.5470807807332778161 -2.4179624673096080656 0.029179745984308481932 2.1272499195833898256 -1.8963353619316467569 -0.14777281293298971665 -0.12570658919964022848];

% Output 1
y1_step1.xrows = 7;
y1_step1.keep = [2 3 4 5 6 7];
y1_step1.remove = 1;
y1_step1.constants = 0;

% ===== SIMULATION ========

% Dimensions
Q = size(x1,2); % samples

% Input 1
xp1 = removeconstantrows_apply(x1,x1_step1);
xp1 = mapminmax_apply(xp1,x1_step2);

% Layer 1
a1 = tansig_apply(repmat(b1,1,Q) + IW1_1*xp1);

% Layer 2
a2 = tansig_apply(repmat(b2,1,Q) + LW2_1*a1);

% Layer 3
a3 = softmax_apply(repmat(b3,1,Q) + LW3_2*a2);

% Output 1
y1 = removeconstantrows_reverse(a3,y1_step1);
end

% ===== MODULE FUNCTIONS ========

% Map Minimum and Maximum Input Processing Function
function y = mapminmax_apply(x,settings)
  y = bsxfun(@minus,x,settings.xoffset);
  y = bsxfun(@times,y,settings.gain);
  y = bsxfun(@plus,y,settings.ymin);
end

% Remove Constants Input Processing Function
function y = removeconstantrows_apply(x,settings)
  y = x(settings.keep,:);
end

% Competitive Soft Transfer Function
function a = softmax_apply(n,~)
  if isa(n,'gpuArray')
    a = iSoftmaxApplyGPU(n);
  else
    a = iSoftmaxApplyCPU(n);
  end
end
function a = iSoftmaxApplyCPU(n)
  nmax = max(n,[],1);
  n = bsxfun(@minus,n,nmax);
  numerator = exp(n);
  denominator = sum(numerator,1); 
  denominator(denominator == 0) = 1;
  a = bsxfun(@rdivide,numerator,denominator);
end
function a = iSoftmaxApplyGPU(n)
  nmax = max(n,[],1);
  numerator = arrayfun(@iSoftmaxApplyGPUHelper1,n,nmax);
  denominator = sum(numerator,1);
  a = arrayfun(@iSoftmaxApplyGPUHelper2,numerator,denominator);
end
function numerator = iSoftmaxApplyGPUHelper1(n,nmax)
  numerator = exp(n - nmax);
end
function a = iSoftmaxApplyGPUHelper2(numerator,denominator)
  if (denominator == 0)
    a = numerator;
  else
    a = numerator ./ denominator;
  end
end

% Sigmoid Symmetric Transfer Function
function a = tansig_apply(n,~)
  a = 2 ./ (1 + exp(-2*n)) - 1;
end

% Remove Constants Output Reverse-Processing Function
function x = removeconstantrows_reverse(y,settings)
  Q = size(y,2);
  x = nan(settings.xrows,Q,'like',y);
  x(settings.keep,:) = y;
  x(settings.remove,:) = repmat(settings.constants,1,Q);
end
