function [y1] = myANN(x1)
%MYANN neural network simulation function.
%
% Auto-generated by MATLAB, 22-Feb-2026 23:31:06.
% 
% [y1] = myANN(x1) takes these arguments:
%   x = 7xQ matrix, input #1
% and returns:
%   y = 8xQ matrix, output #1
% where Q is the number of samples.

%#ok<*RPMT0>

% ===== NEURAL NETWORK CONSTANTS =====

% Input 1
x1_step1.xoffset = [-1.84474391080256;-19.3263877293641;-1.4894656039435;-0.999999998682176;-0.999999985168201;1;1];
x1_step1.gain = [0.147350520033822;0.0506911265787135;0.225903981725875;1.00000000273404;1.00000001433105;0.4;0.4];
x1_step1.ymin = -1;

% Layer 1
b1 = [-0.80917843914006948314;1.2895604498904198465;0.21936171216044106358;0.53409225089945566722;-0.62320985786393434669;-1.0271602714666425715;-0.33461720096893615706;-0.54355442092165706658;-0.64264241360638718614;-1.0756610617932689244;0.86593521709177656565;-0.63998383844845863067;-1.1794478113753659176;-0.71366087023757474039;0.3319038420875357609;-0.34605524039665491731;1.3538814698283525573;-1.4184681243400032447;0.27690703242145670027;0.68197839569038287699;-0.34492902961135563089;-0.92445650181407623691;-0.040861258880792519776;-0.48946571688559786795;-0.28516611373954553477;-0.73184250420895380351;1.0340046399684739153;0.8863538875108500914;-0.72225281338830449318;-0.059481406415386253728;-1.2423877583930837964;-0.0079960767806206700659];
IW1_1 = [-0.26637832020634577557 2.0184290745802746514 0.14544381523553043256 -0.36708730665132999205 2.3811792650134666616 -0.99651202049797171778 0.18258210711884975685;0.36029645271220051006 1.6587060079123407963 0.29860037147871187901 0.5927408498803247161 -1.195516192078941442 0.38027246864823854855 -1.8946847269236162248;-0.78277717706829774702 1.7247848457656711485 0.12170015220424765245 2.4335425710371607622 -0.48424416612869136678 -0.63439534681827292051 0.75925393598521440097;0.59862183436125659952 0.6235828588950523832 1.166070289248239078 -0.40791579367964125868 1.2966620625776672515 -1.5845123316813887193 -0.85491074148416967837;-1.4244275746913350744 -1.0645094543482682692 0.17759300771177383149 1.4590863621551668494 -0.88182506733428234202 0.99235427714346957639 -0.50319934182863801375;0.42425831751160958394 1.0374851791251593625 0.41427640395528120276 2.1272307235036955753 0.88492349306047224378 0.16693615191969926603 -1.191960648150134805;-0.65418327634347606114 -0.0032136167359746994551 0.51164384427024900415 -1.3123317317355480682 1.2037130946859744274 -0.8507724491242746323 -0.43705125101071218285;0.68980740792841088727 -0.14504830339841065512 -0.94023408832380694911 0.29295869774819283116 -1.6968130135415586679 2.0018031254130477237 0.28086314910485093987;1.0028594808745496803 0.35241387458089512563 -0.10489294645290433983 -1.4458675461077554747 0.58317606239884767216 -1.8874282044909445055 -0.26183956877975100852;-0.94161973005821719696 0.58169666394113295205 -0.033384439698144439956 0.41889762196219026968 0.48108767184913880932 0.97747769609773871302 1.8097705065496187959;-0.90169365761570263729 -1.3966567790773063429 0.22102588088979413516 0.053173560541257519629 0.88160129575987189465 -0.9283185500489669062 0.69250986630387556531;0.71236832830493035384 -0.34917489985511140915 -0.60382538015274422882 1.0741949045405931873 -0.47983702079274898056 1.7603433332029867486 0.022081708409727163894;-0.22400932213961438633 -0.45184889879114670252 0.59133286300653009615 0.085216901365407202174 -1.405026522498141528 1.3475837124363347908 1.0572301893641922188;0.34158142526267892825 0.0199169323643296238 -1.0395859900575359358 1.1910904628447995801 0.18552350608037168622 0.25513301948039479594 -1.3114319202892841254;1.5907574788728804371 0.089071439537760574434 1.0386411913907100946 -1.0123806619517770056 -1.348490929743922262 -0.033735186266255420828 0.038166507926033044207;0.80898462481384281197 -1.4485450201961755923 0.45563122932399580112 0.8782481587885636598 1.5683318520962079567 0.41127421363346633454 -0.4466562475576366098;0.026842726993701292171 2.3625258469177512488 -0.17992387870561948882 0.21076470500754534987 -1.0027271473419130388 1.3261214085645163241 0.32183250079302605506;1.3056629858650232734 0.76232191915784397462 -0.39857506580297169529 -1.0488983352925873582 -0.43869051869485148343 0.48459357828235766208 1.6270370335320401001;1.1201385618764521102 -1.1006809655630829248 -0.50205201562048140662 0.66814487219121720951 -0.41897956288303134231 -0.69551660739244913767 -1.3315615950790993249;-0.023230814182444423088 0.67432463322859648169 0.68055754116060185321 -0.40871485929584011609 0.37233861855610228542 -0.85251504441388159528 -0.50331554100594444456;-0.38096947003550901689 0.045745904991975422371 0.65313850969556674908 -0.99590776158501470583 1.3771818304994731808 1.8973987858007903551 -0.75764261572195956695;-0.24799280844161789017 0.69907733640766900329 -0.84914440085603826169 -0.34363767664415312275 -0.66105406160950352934 -0.36251273095792557744 -1.2001400149482224222;0.87092400131351510595 0.83378984478907913758 0.12051589944133403454 0.47458877575717794972 -0.50078706337524625525 -0.11081160552558794175 0.095732757397369153129;-0.18400609014605776026 0.032102463181082417643 0.35120782425135621541 1.4065601076245031198 1.7443436378576657741 0.73429308528959580382 -1.0757522662166871807;-1.2461669493711986512 0.78707396283181052521 1.6764894011226261217 -0.29686580709858650939 0.63533378062181355972 -0.60639002283335996513 1.5233706218868028337;-0.51697900711861288769 0.17546034516106984169 0.25351910640347596892 0.7296317483189099784 -0.25610923183536149494 1.1681664717791813146 -0.33968536836483115282;-0.75021862480008194574 1.3679603220670606412 -0.51892674657701376439 1.3126551877672021362 1.5903447300809059328 0.074826341662493314755 -0.070042340657154034123;-0.41371116364870347271 0.51725177093208929424 0.31663296794785217303 -0.96011976231979145879 1.0513001565098198942 0.85161215329926798212 -1.3943683362731373876;0.36793008557686657234 1.2029575528359608416 0.94909360585617785766 1.5789514348944160282 2.0868584433835324354 -0.40806156968717333111 1.8564384792943475766;1.2646256190600713154 0.12000770827827639264 0.98714385713740349093 -0.49279653509368859243 -0.58555454178727861514 -0.76123087887970841692 0.003140566783826065269;-0.84540558482857253164 -1.4394658110756168856 -1.1951774901571952103 0.56383858341362613764 1.8749405033247406038 1.0264167595289845902 0.11867233447967957816;-0.79973781879848115928 1.9807939441251389834 0.78957146207264472526 -1.7385799683220497514 -0.87612078599085274622 -1.1340275886121251592 1.2972098292137570485];

% Layer 2
b2 = [-0.035635852958946598323;0.081836675460472380061;0.95464671957640634403;-0.82153992947369880451;1.2396485521064672941;-0.2476841702535459433;0.45839497942535634145;0.71906620011179567253;-0.40439497612070252064;1.0393457795534100097;1.2731496934325658987;-0.87431882261175253301;1.1627357093031522872;0.56688378301510933266;-0.51540632277867381994;0.5519644758763732062];
LW2_1 = [-0.81385409080443404939 0.69897100207704210284 0.63414921936177182094 -0.37641243290717801839 -0.39567701788419906705 0.13557870737750760126 0.63538535160358500242 0.090538222707281748591 -1.1522492895101472676 0.27240793347780345446 0.53641458868122926518 -0.78349260557869015997 0.97391881809997293828 0.47847764062043857125 -0.22174392763298800269 0.48434350046064961193 -0.18084985528974981128 0.26688183911463325693 0.79419656569811980518 -1.2027017846076142327 1.1317117521586586015 -0.4498764064549816144 -0.51651569883542980399 -0.74566276177588919349 -0.17380503919966244775 -1.30933391542995059 0.084660610741204581076 -0.44137046155075365661 -0.89915526395346090371 -0.45408444735798414449 0.4819447463397248943 0.84875042272110989838;0.37485444378552074118 -0.49137978779082985836 -0.79484127075797461615 0.023548120793692086522 0.57967484310571171235 0.56696275744533464191 0.63207145282079479909 -1.4284844714123188236 0.67635899855601377961 -0.707785645425908716 -1.1039002749023365535 1.1803923976992203304 -0.34839227903502545391 0.046806158250746507377 0.64023038529586584477 0.29025750523394650005 1.1829189725657782706 -1.0378591276641655483 0.95478322709928453715 -0.18267113270695245486 -0.038628502507953903222 0.29035573421065985489 0.17601610109071577637 -0.68278552837988182311 1.3647756675430542384 -0.69909514199438449467 -0.30342337345815978411 -1.7943044891235808702 -1.6508589532484263529 -1.08541872689661556 0.91803039377970441226 1.295674986569556264;-0.10597812491128702495 0.71357534445379489085 0.34684349289573845887 -0.017516423317652282665 0.33807509454204293098 1.2315291528948806299 -0.24291871020586722207 -1.7647115677461275851 -1.5925395002789013432 0.12703166858084677382 0.31144287301675932511 1.1762034463966075659 1.0610265408060255421 -0.21766514670756950678 -0.46965401516465282716 0.090011699333022457403 -0.10766355364540883266 -1.2151211420738787794 -1.7916219496312146831 0.5945198481861653228 -0.062507905012296680058 -0.82668796688742240963 0.95548487710409635287 0.29971223989718082104 -0.075344886067880603719 0.24937920700829077636 0.75306901094995382095 0.11741854036162052699 -0.95435452201728743216 -0.65954301604283205318 -1.5059661755785613835 0.87146793145116441259;0.33896044277750653206 -0.72088004776815350905 -1.0450260623531881787 0.46670070056574303186 -0.70319410825810146903 -0.47699218111770891326 0.45828477285915081296 -0.67812640005723279213 -0.36663725190921941932 -0.87309505247215346557 -0.39364893369487313768 0.53452296360610707104 1.0459361353804310646 -0.29579909830909739687 0.72347910376140167621 0.48071909542632962342 0.62017761149507710794 -1.6151241268812979168 -0.13680305621125576909 -1.0795502693751943823 -0.36073674573368608165 0.9073023467028976663 -0.62350797038861793808 0.14370915442641374327 -0.68877980730427024181 -0.51071001762701295767 -0.72126109438874308477 -0.31737689321418594002 -0.41453649815562193526 0.52137102164564852469 -0.41434518162733641189 1.0509946431428158764;0.29363641919539978931 1.6835807384603096448 0.97620042277740548542 -0.21683939093877080406 -1.0354537235969127895 0.39480209466671101204 -0.48031822774872190429 0.20398077934819705548 -0.68950756028206983128 -1.0336124130715991232 -0.092498829550698422053 -1.247576131358303142 -0.45806511243321973437 -0.056976909894568009141 -1.0422302010101605063 1.6529852836670175797 1.1203147895657750155 0.56311218730983603198 -0.067070452263720575781 0.18154315021222303117 -1.655671214033588301 -1.4674539569090594426 -0.28906860258810629372 -0.087546940642885998085 0.68609364607870704234 -0.34843983890999269404 -0.70623847728136268653 -0.34588278747967921012 -2.7214129599655549896 -0.45472572161441610072 0.46591242063575910581 1.4385076031761423465;1.1861561339847661589 -0.045719883136563083115 -0.58226497239267549499 1.0229806088017054932 0.77618193386179412663 0.15100413993560743431 -0.74360318695762528396 -0.59072707246925593161 -0.30531869684774060048 0.45756127462245427262 -1.2877059767799154955 0.25265789872177241149 -0.490058275263573484 0.72971548155665411084 -0.081173404684094285777 -0.86101241041415488287 -0.82062207149458288313 0.65458996598416441248 -0.97521276435691983675 -0.32679133730887360842 -0.86640352329539360721 0.36899508461801638903 -0.86209377564374112257 1.4208156851930280329 -0.78569016016057779961 0.25335874122316459633 0.77914477805443216329 -0.15894255317590863519 0.75061151989946883756 0.55401953678297488626 0.18847277563935377342 -1.0838325419396563909;-0.64882333766685074128 -0.25247502119321746372 0.60319256692593559155 -0.13825610483631578518 -0.080214174843143748461 0.25854421212199285574 0.17723385342350084226 -0.22986334136043959364 -0.13903247699376741764 -0.83025037608172491677 1.1924984418214272797 0.60191220112270749087 0.67700862534825079209 0.90594183685006579587 -0.63631482300785635609 0.17884114823678684547 -0.60840826885523535683 -0.060698147294684583197 -0.62050465539722932107 -0.16249266802640002783 0.47688082462482006552 -0.066618819809169421697 0.22132161588387178064 1.3104855813554858734 -0.52835952859677637328 -0.21323599029347115041 -1.2101171750961186024 -0.14758721334651678236 0.35995657962294630439 -0.65341401124644271636 0.72878560359594457552 0.98965578753082528163;-0.47554235280010809239 0.040426740853748914517 -0.95326186194295625675 -0.69695237522309005929 -0.93860761379373280899 -0.29581066092752095198 1.2390977152364952563 -0.99128568230121671956 -0.67270430889426313659 0.10485260175057566079 -0.17818958507751303522 0.4059173639842249548 -0.39455717604409196175 0.29127818013608980374 0.52407573893475334348 0.53530758282704693496 1.5739315047551509785 -0.75515195958016056998 0.43978485872518346955 0.65160412054874383703 0.79633567719810272045 0.43059338854968598476 -0.55918227230023798136 -0.50769732748011531243 0.34578084123876134948 0.58654934276258230419 0.93202997953766097972 0.13244065582768749234 0.084044540512210205718 -0.65880812647821551664 -1.4785871254857676504 -0.15843596812664062501;0.83221081661756812764 0.7270212239935422982 -1.0245197316726306624 -0.61547252043991595993 0.034272611122011617524 0.71791448176654237834 -0.23277999887166497817 -1.2777208009549811951 -0.36471812686893673172 -0.70651841717981278546 -0.08175634976872873938 0.67948842155989419567 0.72473319268933078519 -1.2471393979685594378 -0.70212352330658500676 -0.3953390010415809841 1.194842893296162778 0.059596685666443459384 -0.45340760324571494078 0.42573348097757385267 -0.68558287693815955777 -0.078069321192530766185 -0.23843264567457558845 0.069012840303545291976 1.457139172581585207 -0.50844001294309548733 -1.8315832643000780067 -0.52181856963024775276 0.17990450252538509046 -0.62964585507318626689 -0.76379663006863185437 1.368356411444915377;-1.8441065645073471124 -0.48333074153189520272 0.0053767827545424390356 1.3435078612427642231 -0.28843315013303583161 0.048766482881868543353 0.025155713388006244874 -0.37304349689259874712 -1.6812443940843810886 0.50515793625697458236 1.1843673040088684711 0.73573676172242630233 0.018557612557098993045 -0.8822089581895994348 -0.0084455417258652628471 1.167930887408210161 0.77740474220286603924 -0.53265625549942330341 -0.21683431120928445268 -0.51705532118000541164 0.24864210591202112743 0.78531617869581571423 0.9502541702949854896 -0.66578448303138026976 -0.29944571682124732082 0.46011774248532194553 0.076934890073033709856 -1.4752964133857129347 0.86596301209599535476 -0.054051807143775838782 -0.90651674559791206587 -0.055852329345638836167;-1.1790641829368395666 0.60598250437017442405 0.71801363408452922865 -1.0589174284062159437 -0.44747872974790836587 -1.0912979903957322758 0.14132740714877428667 -0.19806974662242740615 0.46373993307399313801 0.052346245549790990093 1.5230167210039990966 0.19559734442905993279 0.20455993347700976437 0.51002881537459110461 0.77278734560495077055 0.31808116953345966227 -0.053452856277931837248 -0.2586654746507153213 -1.2420864461389262701 -0.07158151491679802525 -0.40269010700735657915 -0.085944855714833956473 -0.6665855385717676107 -0.69010056750424397798 -0.22475061647934829745 -0.49759885872075565461 0.44825655248331064406 0.66854209961257615724 1.3593306449405329062 -0.34188623516191846141 -0.22899943713443135507 -1.3198321130289563108;-0.98487345259681369214 -0.16337909970188843611 -0.56350076405005067315 0.76675789598179888706 -0.59758222189665299862 -0.22251693994683235944 0.85241567321567512927 0.013116040692052091665 -0.97751515799978039301 -0.37934426686615085877 0.14136141051473777308 0.28581514392269075087 -0.42076287675699408641 -0.10433028747444043904 0.30381103868898118314 0.47731581083079199779 -0.91237362768646657063 0.48747272171399735896 0.30924154285572513778 -0.782902693357156787 0.51068288272729966959 0.62245936779272026396 0.96683328542496604907 0.47630547126032796168 -0.757620444210807098 0.65357437854739885985 -0.97028032792674112628 -0.17087397224904266047 -0.82283678991567199557 0.10842047682707586786 -0.012953770096684887395 -0.40247586332608120685;1.8349012038796639334 -1.4724399784574249139 0.064190660416372682939 -0.14203052808087907044 1.8794179597612190591 -0.18821715870402180859 -0.68168221092056457966 -1.1564460655806543254 0.49211851138410178663 1.333842354323649948 -0.99972385594077028959 -1.5737843081545126456 -1.5480097078463317395 -0.11477707567369607733 0.067449021255548718967 -1.0035470576560601152 0.24855544654528696769 -1.924449435700731792 0.6903026761096473507 0.074417774907139175311 0.39495079354026046969 0.90565812794293210075 0.11733460947036516986 0.93103709218755281718 -1.3960329032780631753 0.20231453688834594162 1.0877029382087821663 0.30127466395277413547 0.21617554251140944088 0.76019497251079004574 -1.022402483704622389 0.56589517882942397264;0.60182096732843315401 0.35415470621408801088 2.324844161826795208 0.80986686051022849231 -1.1440460407391130904 -1.0464165944692485066 0.6599168474690427777 0.1330253367621131444 -0.37798382172685551783 -1.4925475745444298781 -0.97417284796640679634 0.51791123998073851364 -0.14144418547626982918 0.23893900346111507371 -1.114476515607748297 0.21386340194932290659 0.67505629295325131345 0.20438404134488000197 -0.12408801324362260521 -0.59113379482455785663 0.92209803874115947586 -1.1015647700873882897 -0.45249816215244342832 -1.5308454981888051094 0.62702285732885332248 -0.29014602726477939365 -0.29631362519718484894 0.22333880930286315047 -0.25707102685033422773 -0.71377603546438550541 0.839046274379714907 -0.63394635387516029557;1.5473757003288477474 -0.11472173115272819854 -0.70780723597029682193 -1.8434488589257338464 0.87982882951525653858 0.58560680521441266233 1.2688808402940174869 -0.47578852691367851113 0.10225513619387395503 -0.88526037807991986295 -0.16139329532027010816 -0.45740259403140237637 -0.54849096952573861419 0.11562236631171592116 -0.26462877095610104483 1.358496079613477292 0.10294877859549815546 -0.8526584959255382179 -0.63124808801295928529 -0.84976552807843408477 -1.304682408376121705 0.44537471144286261415 0.054417220051296573413 -0.61968766464617575096 -0.70466400057528943979 -0.45461077653744119687 0.62759021898843703191 0.3272318766771194487 -0.29090253503350577136 0.60836752022254514394 1.3511017366355253522 -1.1318721781891143419;0.46333250281588139741 -0.50865378199472355281 0.29931020724710510894 -0.75943814148509947159 -0.92645527552517659142 -1.8343329575922791008 0.31916819742352980915 -0.052610533229852443626 1.1401422614048624116 -0.78743860089665906887 -0.025135131020843942684 -0.54157115239004383067 -0.75972625282656103263 0.33947485272333260964 0.93817125449677152282 -0.37471667353366228115 1.7195362587995215442 0.12483031160132369852 -0.24249561217589946094 0.30557145130326107685 0.22431884115947733904 0.59284777877006944458 -0.01468307958511673797 -0.14122831873602709196 0.37091675305532323392 0.11994446000527698992 0.69846151370506859291 0.35516879119475358584 -1.046235878332698821 -0.17540055621036457212 -1.2197047694922393823 0.49959644016740134553];

% Layer 3
b3 = [0.026293000749267516486;0.41950601922203700767;-0.51313075760827187022;-0.19793665519460656999;0.17996533501148473388;-0.90344276805067225133];
LW3_2 = [1.1629360420347107929 -1.7797557851712724197 1.2262058514773717111 0.38371363311204637059 2.1226052585471220091 0.65289292027960632581 0.83507612936986941321 0.20777074710976994876 -1.4279435128349384776 -0.11994233416103990131 -0.51642170525167629958 0.79588400159606498274 -2.4779710203535181279 2.0375387766351713559 0.16249089954749285081 -2.1715171167816946785;-0.23013674491031241298 -1.2041066596619336426 -0.69295782838375219459 0.50191804467965772663 -2.6972552959589735089 2.2667216445399196445 0.33940776120971188901 0.59211433054462925263 0.1682166593454121617 -0.95142328421854072129 1.7604644416409713781 0.4454417433912959412 1.6342343134501564617 -0.52443289463524822569 -2.4608172233069711687 0.56246248200476467449;-1.2322748966113721281 -1.1255375168729742086 1.2940967991429992434 0.59727482563350264844 0.68743220606729416033 -1.8297192755845712586 -1.2758302247533281903 0.96494931790830684726 0.26041126390103996879 2.5594808895822649397 -0.21328061048844054737 0.6201408992431991507 2.5055638972885714288 -1.698148129893376046 1.4440786263982516857 -1.4266576665598575957;1.469961039270782921 2.9695928438198100352 0.71794640695470102187 0.8039574004910436944 0.52478440514011781559 0.32745787259067798969 -1.1920590452240285018 1.7309444857191644829 -1.1981147805694440933 0.26858474680572164139 0.3154315002461675066 -0.18794549309716102048 -2.2859893988483386273 -0.51250476237820352665 1.8515149228178162666 0.17478122523619746276;-0.32811616967277418278 -0.46227738385262606702 -3.0002619372030880918 -2.0352372733202619415 2.1898296730027064783 0.2498537962650254074 0.61517616986062584328 -0.95687908685499589723 2.0374241043503587001 -1.8164290005955852081 1.4072301010210517269 -0.74723929603394134702 -1.37753556085510942 2.3474973550603905892 0.060390382180329452155 -0.1402100646313040877;1.1712174150662464367 0.40270365411764857955 -0.54250583853508127508 1.6927186256861868063 -2.5410109210252005418 -1.2652389557606837922 0.43561636462353253707 0.43582749650465280045 1.5874826122638436843 1.6088536547291492074 -1.0698549542150990188 -1.1098158247900844486 1.3709801376168906373 0.49235760700379643806 1.4827245871531200549 1.7013204875009255712];

% Output 1
y1_step1.xrows = 8;
y1_step1.keep = [2 3 4 5 6 7];
y1_step1.remove = [1 8];
y1_step1.constants = [0;0];

% ===== SIMULATION ========

% Dimensions
Q = size(x1,2); % samples

% Input 1
xp1 = mapminmax_apply(x1,x1_step1);

% Layer 1
a1 = poslin_apply(repmat(b1,1,Q) + IW1_1*xp1);

% Layer 2
a2 = poslin_apply(repmat(b2,1,Q) + LW2_1*a1);

% Layer 3
a3 = softmax_apply(repmat(b3,1,Q) + LW3_2*a2);

% Output 1
y1 = removeconstantrows_reverse(a3,y1_step1);
end

% ===== MODULE FUNCTIONS ========

% Map Minimum and Maximum Input Processing Function
function y = mapminmax_apply(x,settings)
  y = bsxfun(@minus,x,settings.xoffset);
  y = bsxfun(@times,y,settings.gain);
  y = bsxfun(@plus,y,settings.ymin);
end

% Linear Positive Transfer Function
function a = poslin_apply(n,~)
  a = max(0,n);
  a(isnan(n)) = nan;
end

% Competitive Soft Transfer Function
function a = softmax_apply(n,~)
  if isa(n,'gpuArray')
    a = iSoftmaxApplyGPU(n);
  else
    a = iSoftmaxApplyCPU(n);
  end
end
function a = iSoftmaxApplyCPU(n)
  nmax = max(n,[],1);
  n = bsxfun(@minus,n,nmax);
  numerator = exp(n);
  denominator = sum(numerator,1); 
  denominator(denominator == 0) = 1;
  a = bsxfun(@rdivide,numerator,denominator);
end
function a = iSoftmaxApplyGPU(n)
  nmax = max(n,[],1);
  numerator = arrayfun(@iSoftmaxApplyGPUHelper1,n,nmax);
  denominator = sum(numerator,1);
  a = arrayfun(@iSoftmaxApplyGPUHelper2,numerator,denominator);
end
function numerator = iSoftmaxApplyGPUHelper1(n,nmax)
  numerator = exp(n - nmax);
end
function a = iSoftmaxApplyGPUHelper2(numerator,denominator)
  if (denominator == 0)
    a = numerator;
  else
    a = numerator ./ denominator;
  end
end

% Remove Constants Output Reverse-Processing Function
function x = removeconstantrows_reverse(y,settings)
  Q = size(y,2);
  x = nan(settings.xrows,Q,'like',y);
  x(settings.keep,:) = y;
  x(settings.remove,:) = repmat(settings.constants,1,Q);
end
